Language model created by QuickLM on Fri Mar 24 10:22:17 EDT 2017
Copyright (c) 1996-2010 Carnegie Mellon University and Alexander I. Rudnicky

The model is in standard ARPA format, designed by Doug Paul while he was at MITRE.

The code that was used to produce this language model is available in Open Source.
Please visit http://www.speech.cs.cmu.edu/tools/ for more information

The (fixed) discount mass is 0.5. The backoffs are computed using the ratio method.
This model based on a corpus of 57 sentences and 92 words

\data\
ngram 1=92
ngram 2=161
ngram 3=122

\1-grams:
-0.9254 </s> -0.3010
-0.9254 <s> -0.2251
-2.6812 A -0.3001
-2.6812 ABOUT -0.3001
-2.6812 ACTIONS -0.2461
-2.6812 ALIVE -0.2461
-2.6812 ALRIGHT -0.2461
-2.6812 ANYTHING -0.2461
-1.9031 ARE -0.2336
-2.6812 AWAY -0.2461
-2.6812 BOOK -0.2461
-2.6812 BORN -0.2461
-2.3802 BOY -0.2461
-2.6812 BRING -0.2965
-2.6812 CAN -0.2900
-2.6812 CHIK -0.2461
-2.6812 CLEVER -0.2992
-2.6812 CORRECT -0.2461
-2.6812 COULD -0.2900
-2.3802 CREATED -0.2891
-2.6812 DO -0.2900
-2.6812 DOING -0.2992
-2.6812 DONE -0.2461
-2.6812 EVENING -0.2461
-2.6812 FOR -0.3001
-2.6812 FUNCTIONS -0.2461
-2.3802 GO -0.2451
-2.6812 GOING -0.3001
-2.2041 GOOD -0.2441
-2.6812 GOODBYE -0.2461
-2.6812 HEAR -0.2965
-2.6812 HELLO -0.2461
-2.3802 HELP -0.2410
-2.6812 HERE -0.2900
-2.6812 HOME -0.3001
-2.3802 HOW -0.2946
-2.6812 IN -0.3001
-2.2041 IS -0.2974
-2.3802 IT -0.2461
-2.6812 KIDDING -0.2461
-2.6812 KNOW -0.2983
-2.6812 LEARN -0.3001
-2.6812 LET'S -0.2992
-2.6812 LIKE -0.2983
-2.6812 LISTENING -0.2461
-1.9823 ME -0.2430
-2.6812 MEETING -0.2461
-2.6812 NAME -0.2461
-2.6812 NIGHT -0.2461
-2.6812 NO -0.2461
-2.6812 NOT -0.3001
-2.6812 NOTICE -0.2983
-2.6812 NOW -0.2461
-2.6812 OFF -0.2461
-2.6812 OLD -0.2956
-2.6812 ON -0.2461
-2.6812 PERFORM -0.3001
-2.6812 PLEASE -0.2461
-2.6812 PURPOSE -0.2461
-2.6812 RAW -0.2461
-2.6812 REMEMBER -0.2965
-2.6812 ROBOY -0.2461
-2.6812 ROW -0.2461
-2.6812 SAY -0.3001
-2.6812 SHIK -0.2461
-2.6812 SHOULD -0.3001
-2.3802 SOMETHING -0.2461
-2.6812 SPECIAL -0.3001
-2.6812 STAY -0.3001
-2.6812 STEP -0.3001
-2.6812 STOP -0.3001
-2.6812 STRONG -0.2992
-2.6812 TELL -0.2965
-2.6812 THANK -0.2900
-2.6812 THE -0.3001
-2.6812 THINGS -0.2461
-2.2041 THIS -0.2461
-2.6812 TODAY -0.2461
-2.6812 TUF -0.2461
-2.6812 TURN -0.3001
-2.6812 WAS -0.2900
-2.6812 WELL -0.3001
-2.3802 WHAT -0.2928
-2.6812 WHAT'S -0.3001
-2.6812 WHERE -0.3001
-2.3802 WHO -0.2965
-2.6812 WHY -0.2983
-2.6812 WORK -0.2983
-2.6812 WRONG -0.2461
-2.6812 YES -0.2461
-1.6021 YOU -0.2336
-2.3802 YOUR -0.2992

\2-grams:
-2.0569 <s> ABOUT 0.0000
-2.0569 <s> ALIVE 0.0000
-2.0569 <s> ALRIGHT 0.0000
-1.7559 <s> ARE -0.1249
-2.0569 <s> BRING 0.0000
-2.0569 <s> CAN 0.0000
-2.0569 <s> CHIK 0.0000
-2.0569 <s> CLEVER 0.0000
-2.0569 <s> CORRECT 0.0000
-2.0569 <s> COULD 0.0000
-2.0569 <s> CREATED -0.1761
-2.0569 <s> DO 0.0000
-2.0569 <s> DOING 0.0000
-2.0569 <s> GO -0.1761
-1.7559 <s> GOOD -0.1249
-2.0569 <s> GOODBYE 0.0000
-2.0569 <s> HELLO 0.0000
-2.0569 <s> HELP -0.1761
-2.0569 <s> HERE 0.0000
-1.7559 <s> HOW 0.0000
-2.0569 <s> KNOW 0.0000
-2.0569 <s> LEARN 0.0000
-2.0569 <s> LET'S 0.0000
-2.0569 <s> LIKE 0.0000
-2.0569 <s> NO 0.0000
-2.0569 <s> NOT 0.0000
-2.0569 <s> NOTICE 0.0000
-2.0569 <s> PERFORM 0.0000
-2.0569 <s> PLEASE 0.0000
-2.0569 <s> REMEMBER 0.0000
-2.0569 <s> ROBOY 0.0000
-2.0569 <s> SAY 0.0000
-2.0569 <s> SHIK 0.0000
-2.0569 <s> SPECIAL 0.0000
-2.0569 <s> STAY 0.0000
-2.0569 <s> STEP 0.0000
-2.0569 <s> STOP 0.0000
-2.0569 <s> STRONG 0.0000
-2.0569 <s> TELL 0.0000
-2.0569 <s> THANK 0.0000
-2.0569 <s> TUF 0.0000
-2.0569 <s> TURN 0.0000
-2.0569 <s> WELL 0.0000
-1.7559 <s> WHAT 0.0000
-2.0569 <s> WHAT'S 0.0000
-2.0569 <s> WHERE 0.0000
-1.7559 <s> WHO 0.0000
-2.0569 <s> WHY 0.0000
-2.0569 <s> WRONG 0.0000
-2.0569 <s> YES 0.0000
-2.0569 <s> YOU -0.2825
-2.0569 <s> YOUR -0.1761
-0.3010 A BOOK 0.0000
-0.3010 ABOUT MEETING 0.0000
-0.3010 ACTIONS </s> -0.3010
-0.3010 ALIVE </s> -0.3010
-0.3010 ALRIGHT </s> -0.3010
-0.3010 ANYTHING </s> -0.3010
-0.7782 ARE </s> -0.3010
-0.4771 ARE YOU -0.1513
-0.3010 AWAY </s> -0.3010
-0.3010 BOOK </s> -0.3010
-0.3010 BORN </s> -0.3010
-0.3010 BOY </s> -0.3010
-0.3010 BRING ME -0.2553
-0.3010 CAN YOU -0.2825
-0.3010 CHIK </s> -0.3010
-0.3010 CLEVER BOY 0.0000
-0.3010 CORRECT </s> -0.3010
-0.3010 COULD YOU -0.2825
-0.6021 CREATED FOR 0.0000
-0.6021 CREATED YOU -0.1761
-0.3010 DO YOU -0.1761
-0.3010 DOING SOMETHING 0.0000
-0.3010 DONE </s> -0.3010
-0.3010 EVENING </s> -0.3010
-0.3010 FOR TODAY 0.0000
-0.3010 FUNCTIONS </s> -0.3010
-0.6021 GO </s> -0.3010
-0.6021 GO HOME 0.0000
-0.3010 GOING ON 0.0000
-0.7782 GOOD </s> -0.3010
-0.7782 GOOD EVENING 0.0000
-0.7782 GOOD NIGHT 0.0000
-0.3010 GOODBYE </s> -0.3010
-0.3010 HEAR ME -0.1461
-0.3010 HELLO </s> -0.3010
-0.6021 HELP </s> -0.3010
-0.6021 HELP ME -0.1461
-0.3010 HERE YOU -0.2825
-0.3010 HOME NOW 0.0000
-0.6021 HOW ARE -0.1249
-0.6021 HOW OLD 0.0000
-0.3010 IN ROW 0.0000
-0.4771 IS IT 0.0000
-0.7782 IS YOUR -0.1761
-0.3010 IT </s> -0.3010
-0.3010 KIDDING </s> -0.3010
-0.3010 KNOW THIS 0.0000
-0.3010 LEARN THINGS 0.0000
-0.3010 LET'S GO -0.1761
-0.3010 LIKE THIS 0.0000
-0.3010 LISTENING </s> -0.3010
-0.5229 ME </s> -0.3010
-1.0000 ME SOMETHING 0.0000
-1.0000 ME THE 0.0000
-0.3010 MEETING </s> -0.3010
-0.3010 NAME </s> -0.3010
-0.3010 NIGHT </s> -0.3010
-0.3010 NO </s> -0.3010
-0.3010 NOT RAW 0.0000
-0.3010 NOTICE THIS 0.0000
-0.3010 NOW </s> -0.3010
-0.3010 OFF </s> -0.3010
-0.3010 OLD ARE -0.1249
-0.3010 ON </s> -0.3010
-0.3010 PERFORM ACTIONS 0.0000
-0.3010 PLEASE </s> -0.3010
-0.3010 PURPOSE </s> -0.3010
-0.3010 RAW </s> -0.3010
-0.3010 REMEMBER ME -0.1461
-0.3010 ROBOY </s> -0.3010
-0.3010 ROW </s> -0.3010
-0.3010 SAY ANYTHING 0.0000
-0.3010 SHIK </s> -0.3010
-0.3010 SHOULD WORK 0.0000
-0.3010 SOMETHING </s> -0.3010
-0.3010 SPECIAL PURPOSE 0.0000
-0.3010 STAY IN 0.0000
-0.3010 STEP AWAY 0.0000
-0.3010 STOP LISTENING 0.0000
-0.3010 STRONG BOY 0.0000
-0.3010 TELL ME -0.2553
-0.3010 THANK YOU -0.1761
-0.3010 THE A 0.0000
-0.3010 THINGS </s> -0.3010
-0.3010 THIS </s> -0.3010
-0.3010 TODAY </s> -0.3010
-0.3010 TUF </s> -0.3010
-0.3010 TURN OFF 0.0000
-0.3010 WAS YOU -0.2825
-0.3010 WELL DONE 0.0000
-0.6021 WHAT ARE -0.2218
-0.6021 WHAT IS -0.2218
-0.3010 WHAT'S GOING 0.0000
-0.3010 WHERE WAS 0.0000
-0.6021 WHO CREATED -0.1761
-0.6021 WHO IS -0.1249
-0.3010 WHY IS -0.1249
-0.3010 WORK GOOD -0.2218
-0.3010 WRONG </s> -0.3010
-0.3010 YES </s> -0.3010
-0.6021 YOU </s> -0.3010
-1.3802 YOU ARE -0.2218
-1.3802 YOU BORN 0.0000
-1.3802 YOU HEAR 0.0000
-1.3802 YOU HELP -0.1761
-1.3802 YOU KIDDING 0.0000
-1.3802 YOU SHOULD 0.0000
-0.6021 YOUR FUNCTIONS 0.0000
-0.6021 YOUR NAME 0.0000

\3-grams:
-0.3010 <s> ABOUT MEETING
-0.3010 <s> ALIVE </s>
-0.3010 <s> ALRIGHT </s>
-0.3010 <s> ARE YOU
-0.3010 <s> BRING ME
-0.3010 <s> CAN YOU
-0.3010 <s> CHIK </s>
-0.3010 <s> CLEVER BOY
-0.3010 <s> CORRECT </s>
-0.3010 <s> COULD YOU
-0.3010 <s> CREATED FOR
-0.3010 <s> DO YOU
-0.3010 <s> DOING SOMETHING
-0.3010 <s> GO HOME
-0.6021 <s> GOOD EVENING
-0.6021 <s> GOOD NIGHT
-0.3010 <s> GOODBYE </s>
-0.3010 <s> HELLO </s>
-0.3010 <s> HELP </s>
-0.3010 <s> HERE YOU
-0.6021 <s> HOW ARE
-0.6021 <s> HOW OLD
-0.3010 <s> KNOW THIS
-0.3010 <s> LEARN THINGS
-0.3010 <s> LET'S GO
-0.3010 <s> LIKE THIS
-0.3010 <s> NO </s>
-0.3010 <s> NOT RAW
-0.3010 <s> NOTICE THIS
-0.3010 <s> PERFORM ACTIONS
-0.3010 <s> PLEASE </s>
-0.3010 <s> REMEMBER ME
-0.3010 <s> ROBOY </s>
-0.3010 <s> SAY ANYTHING
-0.3010 <s> SHIK </s>
-0.3010 <s> SPECIAL PURPOSE
-0.3010 <s> STAY IN
-0.3010 <s> STEP AWAY
-0.3010 <s> STOP LISTENING
-0.3010 <s> STRONG BOY
-0.3010 <s> TELL ME
-0.3010 <s> THANK YOU
-0.3010 <s> TUF </s>
-0.3010 <s> TURN OFF
-0.3010 <s> WELL DONE
-0.6021 <s> WHAT ARE
-0.6021 <s> WHAT IS
-0.3010 <s> WHAT'S GOING
-0.3010 <s> WHERE WAS
-0.6021 <s> WHO CREATED
-0.6021 <s> WHO IS
-0.3010 <s> WHY IS
-0.3010 <s> WRONG </s>
-0.3010 <s> YES </s>
-0.3010 <s> YOU SHOULD
-0.3010 <s> YOUR FUNCTIONS
-0.3010 A BOOK </s>
-0.3010 ABOUT MEETING </s>
-0.4260 ARE YOU </s>
-0.9031 ARE YOU KIDDING
-0.3010 BRING ME THE
-0.3010 CAN YOU HEAR
-0.3010 CLEVER BOY </s>
-0.3010 COULD YOU HELP
-0.3010 CREATED FOR TODAY
-0.3010 CREATED YOU </s>
-0.3010 DO YOU </s>
-0.3010 DOING SOMETHING </s>
-0.3010 FOR TODAY </s>
-0.3010 GO HOME NOW
-0.3010 GOING ON </s>
-0.3010 GOOD EVENING </s>
-0.3010 GOOD NIGHT </s>
-0.3010 HEAR ME </s>
-0.3010 HELP ME </s>
-0.3010 HERE YOU ARE
-0.3010 HOME NOW </s>
-0.3010 HOW ARE YOU
-0.3010 HOW OLD ARE
-0.3010 IN ROW </s>
-0.3010 IS IT </s>
-0.3010 IS YOUR NAME
-0.3010 KNOW THIS </s>
-0.3010 LEARN THINGS </s>
-0.3010 LET'S GO </s>
-0.3010 LIKE THIS </s>
-0.3010 ME SOMETHING </s>
-0.3010 ME THE A
-0.3010 NOT RAW </s>
-0.3010 NOTICE THIS </s>
-0.3010 OLD ARE YOU
-0.3010 PERFORM ACTIONS </s>
-0.3010 REMEMBER ME </s>
-0.3010 SAY ANYTHING </s>
-0.3010 SHOULD WORK GOOD
-0.3010 SPECIAL PURPOSE </s>
-0.3010 STAY IN ROW
-0.3010 STEP AWAY </s>
-0.3010 STOP LISTENING </s>
-0.3010 STRONG BOY </s>
-0.3010 TELL ME SOMETHING
-0.3010 THANK YOU </s>
-0.3010 THE A BOOK
-0.3010 TURN OFF </s>
-0.3010 WAS YOU BORN
-0.3010 WELL DONE </s>
-0.3010 WHAT ARE </s>
-0.3010 WHAT IS YOUR
-0.3010 WHAT'S GOING ON
-0.3010 WHERE WAS YOU
-0.3010 WHO CREATED YOU
-0.3010 WHO IS IT
-0.3010 WHY IS IT
-0.3010 WORK GOOD </s>
-0.3010 YOU ARE </s>
-0.3010 YOU BORN </s>
-0.3010 YOU HEAR ME
-0.3010 YOU HELP ME
-0.3010 YOU KIDDING </s>
-0.3010 YOU SHOULD WORK
-0.3010 YOUR FUNCTIONS </s>
-0.3010 YOUR NAME </s>

\end\
